{
    "param_dict": {
        "norm_type": "clip_0to1",
        "score_clip": [
            0.0,
            100.0
        ],
        "gamma": 0.05,
        "C": 4.0,
        "nu": 0.9
    },
    "model_dict": {
        "model_type": "LIBSVMNUSVR",
        "feature_names": [
            "VMAF_integer_feature_adm2_score",
            "VMAF_integer_feature_motion_score",
            "VMAF_integer_feature_vif_scale0_score",
            "VMAF_integer_feature_vif_scale1_score",
            "VMAF_integer_feature_vif_scale2_score",
            "VMAF_integer_feature_vif_scale3_score"
        ],
        "slopes": [
            0.011111111111111112,
            3.636584088606238,
            0.24268374586964653,
            1.4093466182020273,
            1.6837053738782741,
            1.8833852949715497,
            2.121041147451299
        ],
        "intercepts": [
            -0.1111111111111111,
            -2.6365877717207975,
            -0.7091761705278659,
            -0.40934005727723755,
            -0.6836970846745031,
            -0.8833759929913639,
            -1.1210311992601687
        ],
        "norm_type": "linear_rescale",
        "model": "svm_type nu_svr\nkernel_type rbf\ngamma 0.050000000000000003\nnr_class 2\ntotal_sv 6\nrho -0.7852933672251321\nSV\n3.0065834657412287 1:1 2:1 3:1 4:1 5:1 6:1 \n-2.5479524000435738 1:0.60894646 2:1 3:0.31389465 4:0.51254516 5:0.60268263 6:0.67020621 \n1.8694021150115141 2:1 \n4 1:0.99999285 3:0.99999842 4:0.9999992 5:0.99999935 6:0.99999914 \n-2.328033180709169 1:0.74843748 3:0.61891881 4:0.70712732 5:0.74622067 6:0.77835572 \n-4 1:0.41485602 3:0.41803476 4:0.40295557 5:0.38534399 6:0.36805491 \n",
        "feature_dict": {
            "VMAF_integer_feature": [
                "vif_scale0",
                "vif_scale1",
                "vif_scale2",
                "vif_scale3",
                "adm2",
                "motion"
            ]
        },
        "score_clip": [
            0.0,
            100.0
        ]
    }
}