{
    "param_dict": {
        "norm_type": "clip_0to1",
        "score_clip": [
            0.0,
            100.0
        ],
        "gamma": 0.05,
        "C": 4.0,
        "nu": 0.9
    },
    "model_dict": {
        "model_type": "LIBSVMNUSVR",
        "feature_names": [
            "VMAF_feature_adm2_score",
            "VMAF_feature_ansnr_score",
            "VMAF_feature_motion_score",
            "VMAF_feature_vif_scale0_score",
            "VMAF_feature_vif_scale1_score",
            "VMAF_feature_vif_scale2_score",
            "VMAF_feature_vif_scale3_score"
        ],
        "slopes": [
            0.011111111111111112,
            3.6366410786513734,
            0.02672362983851917,
            0.2426845661135697,
            1.4093198993872773,
            1.6837015408867642,
            1.8834579267401634,
            2.1212302277671227
        ],
        "intercepts": [
            -0.1111111111111111,
            -2.6366410786513734,
            -0.4998033229922652,
            -0.7091727319113901,
            -0.40931722479953325,
            -0.6836958395395261,
            -0.8834499385782132,
            -1.1212213835432472
        ],
        "norm_type": "linear_rescale",
        "model": "svm_type nu_svr\nkernel_type rbf\ngamma 0.050000000000000003\nnr_class 2\ntotal_sv 6\nrho -0.72322245785261163\nSV\n1.2877424578889334 1:1 2:0.64546213 3:1 4:1 5:1 6:1 7:1 \n0.32557731695993608 1:0.60895607 2:0.20856494 3:1 4:0.3138941 5:0.51252437 6:0.60266523 7:0.67023035 \n0.86563243906787868 2:5.5511151e-17 3:1 \n4 1:1 2:1 3:-1.110223e-16 4:0.99999886 5:0.99999919 6:0.99999962 7:0.99999928 \n-2.4789522139167479 1:0.74845001 2:0.47608987 3:-1.110223e-16 4:0.61893049 5:0.7071277 6:0.74621754 7:0.7784779 \n-4 1:0.41488724 2:0.26619006 3:-1.110223e-16 4:0.41805737 5:0.40297982 6:0.38534678 7:0.36822337 \n",
        "feature_dict": {
            "VMAF_feature": [
                "vif_scale0",
                "vif_scale1",
                "vif_scale2",
                "vif_scale3",
                "adm2",
                "motion",
                "ansnr"
            ]
        },
        "score_clip": [
            0.0,
            100.0
        ]
    }
}